19 100
. -0.0065767 0.0044126 -0.005796 -0.0038563 -0.0010006 0.0030597 0.001415 -0.0022884 0.0086697 0.0065829 -0.0030317 0.0056518 0.0065511 0.0078968 -0.0023943 -0.00010557 0.0026682 -0.0010262 0.0045079 -0.0082562 -0.0041946 0.0062589 0.0050903 0.00038695 0.00047523 0.001208 0.00024226 0.00065617 -0.0020963 0.0072009 0.00055625 -0.0030017 -0.00025501 0.00036364 -0.0028712 0.0019535 0.0028239 -5.5786e-06 -0.002636 -0.00287 0.0031207 0.00063821 -0.0027039 0.0052847 -0.0050963 -0.0014002 0.0015182 0.0018465 -0.0061885 0.00045299 -0.0075138 0.00053883 -0.0089328 0.0042159 -0.0030946 -0.0012027 0.0054028 -0.0026996 -0.00035399 0.00064019 -0.0020495 -0.00037209 0.00026335 0.0042401 0.0028174 -0.0018072 -0.0062251 0.0044294 0.0021748 0.007498 -0.0038293 -0.0036137 0.00066412 -0.0013481 -0.00048599 -0.0029334 0.0092978 0.0073019 -0.00067797 0.0013425 -0.00022873 0.00076623 0.00055334 -0.0043396 -0.0018751 -0.0035517 -0.0042301 0.00034 -0.0049887 -0.0017895 0.0093475 0.0024887 0.0064653 -0.0041026 -0.0011482 -0.0013569 0.003133 0.0023866 -0.0042322 0.0024102 
</s> -0.00047392 0.00098189 0.00061102 -0.0017127 0.0017704 5.4594e-05 -0.0028842 0.003067 -0.0019877 -0.0015524 0.0014791 0.00090531 -0.00045457 -0.00028022 -0.0019447 -0.0026075 0.001265 -0.0020824 -0.00024698 -0.00050337 0.0010363 0.0012443 -0.00038846 0.0013949 -0.0024306 -0.0026986 -0.0016188 -0.00021917 0.0010106 0.00038366 0.00056682 0.00067466 -0.0028767 -0.00026321 -0.00046069 -0.00092771 -0.0018681 -0.00081102 -0.0023293 0.00051854 0.00039181 0.0015682 -0.0026006 -0.0016404 0.0014758 -0.00037733 0.002185 -0.0014982 0.0015979 0.0021592 -0.00095383 0.00070193 -0.001521 -0.0016514 0.0022433 0.00019117 -0.0029149 0.0035756 0.0018601 0.0016115 -0.00038028 0.0027292 0.0012178 0.0021925 -8.6215e-05 0.00028825 -0.00095096 -0.0031523 -0.002752 0.0015295 0.00087946 7.2147e-05 0.0013454 0.0025878 -0.0010792 0.0013543 4.1945e-06 -0.00095625 0.0036039 0.002437 -0.00057855 -0.0014636 0.0011158 -0.00053831 -0.00090378 0.00085297 -0.002712 -0.0029539 -0.0034164 0.0022619 -0.0013494 -0.00059751 0.0021296 0.00055522 0.0025939 -0.0022213 -0.0056437 0.00037466 -0.0023644 -0.0026301 
Football 0.0014269 0.00081318 0.00012103 -0.00012847 0.00021355 0.0027105 -0.0015691 -6.3794e-05 -0.00016701 0.00033967 -0.00014867 -0.00018458 -0.00030163 -0.0020903 0.00053334 -0.00095641 -0.0010114 -0.00062179 -6.1685e-05 0.0016616 -0.00064503 -0.0026673 0.00022621 -0.000676 -0.00063867 -0.0026248 0.00077036 -0.00081648 0.00013876 -0.00033542 0.00037922 -0.0013159 -0.0010308 0.0017779 -0.00058357 -0.00061252 0.00062984 0.00070228 0.00061188 -0.0011878 -0.0014329 2.5367e-05 -0.0024044 0.00081023 -0.00016417 -0.00092928 0.00079875 0.00057872 0.00075155 -0.00071505 0.00037257 -0.0014893 -0.00015665 0.00064174 -0.00012696 -0.00050355 -0.0012507 0.00063121 -0.0011953 0.00013873 0.0016018 -0.00029977 0.00089698 -0.00055725 -0.00022709 0.00078415 -0.0017225 0.00079345 -0.00026963 -0.00050532 0.0024614 0.0034997 0.0020558 0.00090849 -0.0021818 -0.00050733 0.00074218 0.0012757 0.0011141 -0.0007207 0.00071618 -0.0010573 0.00048713 0.00086528 -0.0023169 0.0003599 0.00056063 0.00049541 -0.0011917 0.0026828 2.3352e-05 -0.00040888 0.0018539 -0.0021342 0.00084901 0.00051864 -0.00048006 0.00041789 -0.0012156 0.0022403 
take -0.0015177 0.0014523 -0.00078423 -0.0011007 -0.00048931 0.0019026 0.00034002 0.0034672 0.00071861 0.0013166 -0.0006641 0.0029565 -0.0027253 -0.0015917 0.0027106 8.7834e-05 -0.002164 -0.0044045 0.00098494 0.00088805 0.0028581 0.0014633 0.0011798 0.0025386 -0.0010311 0.00096879 0.0028625 0.0025739 0.00074304 -0.00067114 0.00040795 0.00087726 -0.0013651 0.0022649 -0.0013185 0.00048289 -0.0011983 0.001339 0.0012967 -0.0016629 0.001145 0.0019557 -0.0019973 0.00054493 0.0021072 -0.0021933 0.00096264 0.0004111 0.0020013 0.0024484 -0.0038728 -0.00019672 -0.0021499 -0.0018508 -0.0014823 -0.0018007 -0.00349 0.0006518 -0.0013514 0.00048368 0.001534 0.00043855 0.0026178 -0.0018251 0.00057561 0.0001514 0.0003685 0.0017338 -0.0011253 -0.002254 0.0026264 -0.0025349 -0.0010373 0.0013671 -0.0020853 0.002933 0.00086534 0.0020673 -0.00080043 -0.0040498 0.0007724 0.0014824 0.0026486 -0.0012926 0.0011062 5.0941e-05 0.0044978 0.0041372 -0.0042138 0.00031602 -0.0015213 -0.0013859 0.002445 -9.9687e-05 -0.0042021 0.0017773 0.00019826 0.0013698 0.0010598 0.0018884 
US -0.0010954 -0.0018541 0.00057818 0.00073375 0.00043656 0.0018889 0.0003829 -0.0055312 0.0019435 0.0012124 0.0015032 0.0012018 -0.00090306 -0.003127 0.0010427 -0.00070652 0.00057915 -0.00039817 -0.00071909 0.0023543 0.00077895 -0.0019229 -0.00092389 0.0004389 -0.0010609 -0.0011081 -0.00013076 -0.0030982 0.001375 0.0005138 -0.0022278 -0.0031706 0.0013792 0.0028586 -0.003461 -0.0012571 -0.0024974 0.0017231 0.0026786 0.0026136 -0.0012244 -0.0011544 0.0019613 0.0013381 -0.0020868 -0.0011802 -0.002775 0.0014861 0.0011648 0.0039848 -0.0030438 -0.0018774 -0.0022714 0.0052992 0.0038961 0.0043882 -0.0013758 0.0025032 -0.0018007 0.0019709 0.0040942 -0.0037844 0.0038726 -0.00067383 0.0059869 0.0016326 0.0017755 0.00037115 -0.001971 -0.0013245 -0.0017162 -4.8981e-05 0.0016329 0.0058275 -0.0014123 -7.2436e-05 -0.0014356 -0.0018566 0.0044304 0.0037333 -0.0025811 0.0027918 0.0025758 0.00057711 -0.00047243 0.0037807 0.0042229 0.00023579 -0.0020268 -0.00076651 0.0050482 0.0014653 0.0049524 0.00099402 0.0019466 -0.0021855 -0.0015022 -0.0042697 -0.0030986 0.0015629 
in 0.0027416 0.0027121 0.0022538 -0.0015099 0.0030888 0.0037686 -0.0039624 -0.00036695 -1.7181e-06 0.0028136 0.0011359 0.0054327 -0.0040122 0.0013592 0.0029762 0.0033365 0.0010317 -0.0021292 0.003069 0.00022779 -0.0057114 -0.0033269 0.0024584 0.0023306 0.0039441 0.00062638 -0.0012293 -0.00030982 -0.0015666 0.00031916 -0.0019001 0.0047334 0.0012125 5.9321e-05 0.0041019 0.00024191 -0.00059755 -0.00083454 -0.0023934 0.0012348 -0.0046842 0.0021236 -0.0028483 -0.00056478 0.0034712 -0.0055838 -0.0030007 -0.00071668 -0.0010804 0.0019183 0.0026678 0.0020557 -0.0020943 -0.00039665 -0.0048989 0.0012117 -0.0023884 0.00033295 -0.0037651 0.0029427 0.00092507 -0.0034213 0.0033808 -8.4978e-05 -0.0042299 0.00035549 0.0020029 -0.00063652 -0.0001341 0.0035534 -0.0023413 -0.0035982 0.0036907 -0.0023209 0.0019389 -0.00030754 0.00098142 -0.0019937 -0.0025792 -0.0017169 0.00027217 -0.001729 0.00091119 0.0035469 -0.00059126 -0.001477 0.003844 0.0037534 -0.0020311 -0.0023358 0.0026189 -0.0036579 0.00062632 0.0024694 0.0020222 0.0056654 -0.0010281 0.00057032 5.0824e-05 -0.0031842 
popular -0.00023047 0.0038718 0.0009298 0.00096066 -0.0012258 0.00040094 -0.00073 -0.00050953 0.0014058 7.3698e-05 0.00013052 0.0040731 -0.00058022 0.0004339 -0.0011906 0.0022286 0.0024618 -0.00051502 0.0010429 0.00011949 0.00015027 0.00018133 -0.00084961 -1.8352e-05 -0.00071632 0.00049284 -0.00096144 0.0012313 -0.0015142 0.0013728 -0.00047602 4.9777e-05 0.0015385 0.0019116 0.00042548 -0.0010062 0.00038324 -0.00080723 -0.0020709 0.0040398 -0.0015443 0.00084412 -0.00099879 -0.00094565 0.0014158 -0.00082144 0.0028764 -0.0016012 -0.001177 -0.0022757 0.0023777 1.2091e-05 4.333e-05 0.00025291 -0.0020358 -0.0021415 -0.00066242 0.00015079 0.0009786 0.0012405 0.0019816 0.0027906 -0.0025655 0.0016785 -0.00055484 0.0010464 0.00032886 0.0019079 0.0017176 0.00081563 0.00013507 -0.00019992 -0.00010879 -0.00055613 -0.00037661 -0.0006548 -0.00055314 -0.0013746 8.6641e-05 0.00077711 0.00013472 -0.002606 -0.00095276 -0.00026126 -0.00077318 0.0018725 0.0022373 0.0010977 -0.0031673 0.0017467 0.00074012 -0.00096966 0.00070894 -0.00067616 0.001824 0.00051827 -0.00085197 -0.00071779 0.001335 -0.00050684 
very 0.0032937 -0.0018257 -0.0013831 -0.0016625 0.0015413 0.00078213 -0.0012308 0.003404 -0.0026594 -0.0033599 0.0039059 0.0012673 -0.00025786 0.00062466 0.0016325 0.00050031 0.00060104 -0.00071238 0.0024881 0.0021036 0.00082646 -0.0022492 -8.1269e-05 0.0012763 -0.0015963 0.0014901 -0.00096198 -0.00059041 0.0026843 0.0015805 0.00027186 0.00036941 -6.7049e-05 0.0018353 -0.0012688 -0.0003149 0.0013603 -0.0031517 -0.0017734 0.0024671 0.0015628 -0.0017996 -0.0015284 -0.0022734 0.0010275 0.0012842 0.0022334 -0.00063883 0.00080252 0.0031753 -0.0034768 -0.0022834 -0.0012078 0.0027727 0.00023212 -0.0034398 -0.00045157 0.0010166 0.00066039 -0.0017314 0.0029862 -0.00038255 0.0021897 -0.0033538 -0.0033502 0.00041397 0.00044219 0.0016664 0.002076 -1.9245e-05 -0.0041355 -0.0027284 -0.0016179 -0.0014377 -0.002914 -0.0022888 -0.0010644 0.0020746 -0.0025768 -0.0001356 0.00024992 -0.001885 -0.00051983 2.757e-05 0.00058255 0.00057487 0.0016802 0.00071221 -0.0018014 -0.0028622 0.00020015 -0.00071862 0.0010051 -0.0058119 0.0013299 -0.0015442 -0.00080145 -0.00022073 -0.00072718 0.00064728 
is -0.00040824 -0.0033435 0.00083171 -0.0033265 -0.0014123 -0.0040938 -0.0021971 0.0029634 -0.00055129 -0.00079822 0.0016471 -0.001487 -0.0034834 0.0063665 -0.0031113 -0.0058734 0.0051331 -0.0021164 0.0060729 0.0017611 0.00049168 -0.0024512 -0.0028453 0.00045788 0.00042027 0.0016451 0.0023773 -0.0041533 0.0017978 -0.0010689 0.0052332 -0.0031027 -0.000961 -0.00051331 -0.0030935 -0.0026713 0.0038575 0.0043766 -0.0048738 -3.1407e-05 -0.00094676 -0.0048913 -0.00012432 -0.00086495 0.00056113 -0.00028677 0.00086257 0.0017261 -0.00017039 0.0013149 -0.0055279 0.0035614 -0.0036228 0.0064016 -0.0029981 -0.0010517 0.0014519 -0.00026205 -0.0035857 -0.00061545 0.001117 0.0021448 0.00018564 0.0033744 0.00037734 -0.0056432 0.0067589 -0.0033328 0.0020128 -0.0036411 -0.0038845 -0.0018353 0.004874 0.00072939 -0.0041321 -0.00073779 -0.0016408 -0.00021601 -0.0019455 -0.00016087 0.0041515 -0.00033115 -0.0011202 -0.002184 0.0032109 0.0040554 0.0024855 -0.0012587 -0.0015032 0.0021177 0.00011092 0.002727 0.0023041 0.0041691 -0.002175 -0.0022567 1.3988e-05 0.0049263 0.0026741 -0.0016042 
hours -0.0016962 0.0023924 -0.00027803 -0.00057926 0.00066765 0.0014049 -0.00099118 0.0029529 -0.00076858 -0.0014178 -0.00017806 -0.00036918 -0.0013038 0.00019643 -0.004949 0.0015228 0.0018498 -0.0025929 0.00034941 0.00052311 0.0012652 -0.0002885 0.0014953 0.0013341 0.00032288 0.00022619 -0.00069865 0.00034194 -0.0012178 -0.0017079 0.00015635 -0.0019382 -0.00034887 -0.00069581 -0.0013659 -0.00042863 0.0017117 0.0027229 -0.0014577 -0.00020144 8.1305e-05 0.00069327 -0.0011546 0.0013289 0.0017129 0.00060369 -4.1256e-06 0.0026231 -0.0017045 -0.0023036 0.0013062 -7.4241e-05 -0.00040673 -0.00036686 -2.6319e-05 -0.0017873 -0.0013629 0.00058279 -0.00051114 0.0039658 0.0016124 0.001635 0.00020027 -0.001424 0.00084989 -0.0013154 -0.0012681 0.0021634 -0.00027049 -0.0012436 -0.00027391 -0.0021684 0.00039043 0.002029 -0.0038723 0.0017122 -0.0014262 -0.0011157 -0.00023708 0.00010805 0.00095579 -0.00054204 0.0022621 -0.004181 -0.00063866 0.0028226 -0.00074015 -0.00082127 -0.0025527 0.0015042 -6.5703e-05 0.00060194 0.0032804 -0.0014124 -0.0012065 -0.0012532 0.0019576 0.0019505 0.0026683 -6.8255e-05 
3 0.0010595 0.0013895 -0.0059497 0.00046907 0.0020512 0.0026618 -0.00089615 -0.0030427 0.0016784 -0.00085245 0.0057501 0.0053019 0.0049789 0.0016931 0.003241 0.0012372 0.0038605 -0.0081545 0.0026228 0.0027957 0.0062217 0.0025135 0.0047251 -0.0034233 -0.0042608 0.0010806 0.00054621 0.0024881 -0.00068608 0.0022594 0.0022298 -0.0079918 -0.0015904 -0.0014253 0.0027834 -0.0051666 -0.0034248 5.0724e-06 0.0016659 0.00031228 -0.0044907 0.0035318 -0.0083465 0.0026579 0.0047885 0.0039001 -0.0036265 0.00024801 -0.0024193 0.0028895 -0.0067644 -0.0025544 0.0033201 0.00022383 -0.0027744 -0.00027631 8.6294e-05 0.0031416 -0.0015709 -0.003007 0.0047042 0.0042461 0.0027088 0.0067647 0.0020203 0.0086687 0.0053483 0.0040361 -0.0063313 0.0042757 0.0087698 0.004565 0.0049825 -0.0081562 -0.0044527 0.0031935 -0.00045391 0.004333 0.0017948 -0.007426 0.0010478 0.0032178 0.0011956 -0.0034167 0.0046355 -0.00029627 0.00030992 0.0051559 -0.0075991 0.0030549 -0.0052632 0.006443 0.0019352 -0.0045836 -0.0080594 -0.0037492 0.0075741 -0.0023122 -0.00036479 3.7727e-06 
than 0.0038487 0.00080761 -0.0011567 0.0042262 0.0011165 0.00029381 -0.0024004 -0.0033308 -0.00062084 -0.0021782 -0.00062667 0.00097712 -0.00047637 0.0022638 -0.00099225 4.6401e-05 0.0028776 0.00012096 -0.00079183 0.0017101 -0.00081035 -0.0025514 -0.0011517 -0.0022568 -0.0030128 -0.00086631 -0.00041041 -0.0017528 -0.0019675 -0.0018614 0.0037508 0.00060152 0.00041978 0.0011944 -0.00097489 -0.0014557 -0.0021304 -0.0024423 -0.0029299 0.0011258 0.0013643 0.0019242 0.00016479 0.0001301 -0.00020118 0.0015948 0.0001146 0.00092502 0.0011661 -0.0027259 1.6439e-05 -0.0012607 0.0015878 0.0030083 0.0012721 -0.00034457 -0.0011378 -0.002075 -0.00063521 0.00012274 0.0022367 -0.00025488 0.0017083 0.0016072 -0.0020879 -0.0025951 0.00095721 0.00056506 0.00086656 -0.00062839 -0.0016116 -0.00048944 0.0029658 0.002563 -7.963e-05 0.0015189 -0.0030823 -0.0017584 0.0014702 0.0025946 0.0037018 -0.0010268 -0.00010111 -0.00081586 -0.00060786 0.002439 -0.0006169 0.0020474 -0.0042386 -0.00071087 -0.00027462 0.0013611 0.00055846 -0.00040303 0.0014786 -0.0018648 0.00073739 -0.00017181 -0.00053009 -0.00080735 
more -0.00016498 -0.0016221 -0.00057638 -0.0018668 -0.00044885 0.0022405 -0.0028086 -0.00014058 0.00028094 0.00058562 -0.00035155 0.0034706 0.00020192 0.003301 -0.0023145 0.00011379 0.0023674 -0.003507 0.00022328 -0.00043013 -0.00062717 -0.0017505 0.002002 0.00048814 0.00033833 -0.0021303 -0.0018015 -0.0017158 0.00058437 0.00074249 0.00010053 -0.0024075 0.0030027 0.00326 -0.0027745 0.00035582 0.0014041 0.00011153 -0.0008018 -0.00046113 -0.00097472 -0.0011522 0.0017542 -0.0019066 0.0016973 -0.0018629 -0.0018506 -8.9895e-05 -0.0012263 0.0043497 0.0022825 -0.0061677 -0.0015433 0.0017599 -0.0020429 0.0019559 -0.0030997 0.0017428 -0.0027351 0.0007598 0.0040436 -0.000225 5.9925e-05 -0.00094698 0.0002344 3.353e-05 -0.00034005 0.002608 0.00072839 -0.0027653 0.002443 0.0026145 0.0019027 0.0022697 -0.00030339 0.0020896 0.0017487 0.00013379 0.0006069 0.0016891 0.0012411 -0.00026271 0.0003103 -0.0016358 0.00057637 0.0023126 -0.00054647 -0.0017904 -0.00064059 -0.00081784 0.0007817 0.00060471 0.0036143 -0.0025211 -0.00037839 0.00020404 -0.0024261 -0.0023921 -0.0016851 -0.0021059 
I -0.00050704 -0.0027297 0.0047817 6.8533e-05 0.00118 0.0055757 -0.00061431 -0.0040745 0.0045951 0.0054268 0.0054947 0.0067525 -0.0082218 0.00071836 0.0023122 0.00049611 0.0022695 0.0060375 -0.0073233 -0.0043862 0.0029065 -0.0043605 -0.0014116 -0.0032348 0.0030652 0.0043065 0.0073411 0.0073739 0.0019367 0.0057445 0.0047573 0.0051047 -0.0040835 0.0020662 0.005545 0.0043199 0.00043075 -0.0014512 -0.0012224 -0.0064241 0.0025173 0.0044981 -0.0040022 0.0014866 0.0068478 -0.0030302 -0.0032602 0.0026225 0.0022634 -0.0018369 -0.0036228 0.0062825 -0.0057002 0.0004536 -0.0030063 0.00087551 0.0013446 -0.0005421 -9.1159e-05 0.0011616 -0.009273 0.00016696 0.0037042 0.0063025 0.0025023 -0.0057825 -0.0032932 0.0031577 0.0064104 -0.0055527 -0.004426 0.0001021 0.00033909 -0.0016252 -0.0051887 -0.0083229 -0.0003482 -0.0020375 -0.0031099 0.0017602 0.004357 0.0049601 -0.0053859 -0.0003875 0.0029642 0.00059086 0.0079059 -0.0011165 -0.0053396 0.0041769 -0.0078797 0.0038712 0.00089232 0.00060631 -0.003527 -0.0041175 -0.0021538 -0.0017819 0.0093538 0.00014728 
usually -0.00043735 0.00025654 -0.00059349 -0.00087773 4.1641e-05 -0.0013171 -0.0030406 0.0026424 0.00026014 -0.00085067 -0.0014391 0.001151 -0.00051461 7.4806e-05 -0.0031131 -0.00074916 0.00034668 -0.00054147 -0.0015812 -0.00098658 -0.0031244 -0.00073097 0.0027942 -0.00016654 -0.0022148 -0.0011642 -0.0013844 2.8445e-05 0.00056133 0.0012303 0.00010901 0.0014577 -0.0028486 0.0018824 -0.00064262 -4.6313e-06 0.00094654 0.00090321 -0.0037675 -0.0015842 -0.0028085 -0.0030648 -0.00088528 -0.00065533 0.0024061 0.00051798 0.00097434 0.001263 0.00093197 -0.00076208 -0.0016075 -0.0013733 -0.0012298 0.0011999 0.00069352 -7.6901e-05 -0.0015903 0.002415 1.3302e-05 -0.00050484 0.001873 -0.00054179 0.00071378 -0.00021475 0.0035379 -0.00067487 -0.0010271 0.00098225 -0.0014716 -0.00059399 0.0016796 -0.00060743 -0.00082273 0.0021795 -0.0023838 0.0015792 0.00072508 -0.00091399 -0.001897 -0.0020417 -0.0013435 0.0011903 0.0013262 0.00044072 -0.0011898 -0.0002299 0.00077381 0.0012396 -0.0025284 0.00019174 0.0020777 -0.0020418 0.0013055 0.00076167 -0.0018208 -0.00039315 -0.0016448 0.0020834 -0.0011977 0.00012005 
games 0.00013003 -0.0021387 -4.3332e-05 -0.002124 0.0020862 0.00057256 -0.0020539 -0.0017188 -0.0010207 -0.0014076 0.0016576 0.0020237 0.0019149 0.0032952 -0.0019358 -0.001895 -9.773e-05 -0.0035072 -0.0025301 -0.0040368 0.00019491 -0.00039029 0.0013612 0.0023869 -0.0020513 -0.00039369 -0.005357 -0.0008122 1.7331e-05 0.0031967 0.00065948 -0.0023293 -6.8127e-05 0.0026735 -0.0026795 -0.00068562 -0.0022667 0.00011881 -0.0014338 0.0006533 0.0021142 3.4911e-05 -0.0014327 0.0022013 0.0021716 -0.0029741 0.0013242 0.00042077 0.00086199 -0.00026797 -0.0024666 -0.0015607 -0.0028775 0.0020661 -0.0011829 0.0028017 0.0024111 -0.00062012 0.0012467 -0.00080204 0.0016382 -0.00056225 -0.00021946 0.0024638 0.0011807 0.00044039 0.0028491 0.00023155 -0.002436 0.0017299 -0.0016062 -0.0005788 -0.0014269 -0.0005093 -0.00082929 0.0016479 -0.000567 0.0002197 -7.0817e-06 0.0016856 0.003107 -0.00071424 0.001813 -0.00044363 -0.0022936 -0.00050031 -0.00017422 0.00021489 -0.0014231 -0.0016477 0.00023173 0.00036099 0.00081632 -0.0031465 0.00042703 0.00064521 -0.0021495 0.0012384 0.0037084 0.0019386 
soccer 0.0016921 0.0010703 0.0015758 0.0011173 -6.0403e-05 0.0011464 -0.003283 0.00016891 0.00097499 -0.0011935 0.00090891 0.0028949 0.0012216 0.0023182 -0.0038352 0.0009816 0.0012347 -4.1538e-05 -0.0016598 0.00010726 -9.0975e-05 4.5678e-05 -0.00046642 -0.00082551 -0.001246 0.0016727 -0.00081272 -0.00014214 7.1552e-05 0.0015104 -0.0014367 -0.0017743 -0.00011325 -0.00067464 0.00011926 -0.00096084 -5.3604e-05 -0.0019583 -0.0013717 -0.0006657 -0.00095133 0.00033027 0.00012879 -0.0023452 0.0025192 -0.00026267 0.0014405 0.0011884 0.0015184 -0.0018384 0.0015345 -0.00053553 0.00051739 0.00098612 0.00080004 -0.0004845 -0.0021004 0.0014775 0.0001785 0.00025758 0.0020928 0.00085358 0.00036 0.00036467 -0.0027723 -0.0012323 0.0020844 -0.00017861 0.0017424 -0.0012459 0.00052411 0.0013794 -0.0022355 0.00030857 0.0015738 -0.0010045 0.0016579 -0.00044888 -0.0015389 -0.00080644 0.00094823 -9.9357e-06 0.00059006 0.001314 -0.00029626 0.0018926 -0.00088827 0.00096686 0.00014217 -0.00083026 0.00037882 7.0447e-05 0.0015507 -0.0019524 0.0015392 -0.00052209 0.0002561 0.0022221 0.0024626 -6.058e-05 
playing 0.002786 -0.0002403 0.0015493 0.0021071 0.0014112 -0.0012531 -0.0007975 0.00046775 0.00057365 -0.0011709 -0.00085458 0.0013396 -0.00049558 -0.0011455 -0.0019956 0.0023669 -0.0013487 0.0022095 0.00047149 -0.001877 -6.0074e-05 -0.00087425 -0.00044274 0.00044242 -0.0017442 -0.0014625 0.0026704 0.0013245 0.001466 0.0015666 -1.2712e-05 -0.0015883 0.0013094 0.0016871 -9.565e-05 0.00043246 -0.00088982 -0.0018431 -0.0016007 -0.0010884 0.00049695 0.0028707 -0.00054547 0.00046767 -0.00040422 -0.001725 0.0027145 -9.5752e-05 0.0025934 -0.0013766 -0.00090092 -0.00098391 0.00085648 0.001509 0.0016863 -0.0013878 0.00016369 0.00033452 0.0013444 -0.00011324 0.0013039 0.00084266 -0.00012297 0.00087291 -6.7902e-05 0.00022935 0.00069316 0.0017434 0.00029662 0.0007034 -0.00060369 0.0020209 0.00033565 -0.00077244 -0.00094299 -0.00073196 0.00034919 9.5082e-05 0.0030511 -0.0009567 0.0015263 -0.001135 -0.00018072 0.001198 -2.8599e-05 8.5106e-05 0.0011774 0.0021323 0.00013965 0.00035041 0.00029287 -0.0015671 -0.00023721 0.00087343 0.0016649 -0.00064117 -0.0014315 -0.0010959 -0.00036346 -0.00020418 
enjoy 0.00050404 0.0010051 0.00028884 -0.00064137 -0.00017889 -0.0023157 -0.0022159 0.0027443 -0.00015349 0.00046271 -0.00014381 0.00037834 0.00025233 0.0018913 -0.0024742 -0.00049771 0.003922 -0.0017818 -0.00060106 -0.0024409 -0.0007986 -0.0010007 -0.0016402 0.00078974 0.00091311 -0.0013368 -0.001403 -0.00077553 -0.00042876 0.00069129 -0.0011825 -0.0036015 0.0043532 -7.0744e-05 -0.00096464 -0.0031849 0.00023356 -0.00029106 -0.0022991 -0.0023938 -0.001035 -0.0010726 0.0018285 -0.0013179 -0.00016629 -1.4674e-05 0.00054455 0.00029996 -0.0014367 -0.0023454 0.0011174 -0.00086882 -0.00183 0.0013242 -0.00088801 -0.00068883 -0.0036395 0.0021792 -0.00017197 0.0023651 0.0026888 0.0023956 0.0014693 0.0011804 0.00058715 -0.00070991 0.00075187 -0.00085997 -0.00066006 -0.0027241 -0.00083651 0.0013173 0.0010832 0.001454 -0.00031701 -0.00023867 0.0001956 0.0020278 -0.001274 -0.0013026 -0.00015213 0.0014194 0.0012501 0.0013362 0.00036927 4.3215e-05 0.0011261 0.0017244 5.5576e-05 0.0021705 0.0014707 0.0013037 0.0055538 -0.0011097 -0.0013661 0.00141 0.001181 -0.00066227 0.00078598 -0.00098124 
